%YAML:1.0
---
myHogDector: !!opencv-object-detector-hog
   winSize: [ 64, 128 ]
   blockSize: [ 16, 16 ]
   blockStride: [ 8, 8 ]
   cellSize: [ 8, 8 ]
   nbins: 9
   derivAperture: 1
   winSigma: 4.
   histogramNormType: 0
   L2HysThreshold: 2.0000000000000001e-01
   gammaCorrection: 1
   nlevels: 64
   signedGradient: 0
   SVMDetector: [ 1.06345695e-02, -2.51169894e-02, -1.42644700e-02,
       3.26339379e-02, 2.12241951e-02, -2.44474970e-02, -1.70392338e-02,
       -4.79433052e-02, 6.48038695e-03, 2.16484275e-02, -3.09510762e-03,
       6.01889798e-03, 8.95722769e-03, 1.49971750e-02, 4.53528427e-02,
       1.34258391e-02, 2.49944697e-03, 1.29456259e-02, 4.10899371e-02,
       -3.84328468e-03, -2.73020542e-03, 4.58411202e-02, -2.14914735e-02,
       -1.30958334e-02, -3.07245161e-02, -4.10130955e-02, 1.75994895e-02,
       2.71200985e-02, 2.02441774e-02, -8.58081970e-03, 3.18384171e-02,
       -2.49129832e-02, 1.41972499e-02, -1.20096281e-02, -5.63686388e-03,
       -5.06573217e-03, 1.03261191e-02, -1.70057397e-02, 1.04238447e-02,
       4.45147371e-03, 1.58575047e-02, 1.73501875e-02, -2.15675333e-03,
       3.28083686e-03, 9.49768163e-03, -1.19225893e-04, 1.02748759e-02,
       2.30055377e-02, 2.40124688e-02, -7.48316234e-04, 8.64272285e-03,
       1.92668699e-02, 1.03019811e-02, -3.89814214e-03, 1.43998442e-02,
       3.02848406e-03, 9.54700354e-03, 1.87041033e-02, 1.39858443e-02,
       1.38191110e-03, -2.28999835e-02, -2.49839411e-03, -8.65781959e-03,
       3.60293463e-02, -3.81161924e-03, -1.02664111e-02, 1.09299896e-02,
       -5.72374230e-03, 1.57702398e-02, 1.53951058e-02, 1.10936547e-02,
       2.19600368e-02, 1.41040888e-03, 2.35477239e-02, 3.17286365e-02,
       7.53567694e-03, 1.42825227e-02, 1.36524504e-02, -2.01178845e-02,
       -1.15458453e-02, -7.35485414e-03, 6.67575374e-03, 2.42214557e-02,
       3.22636440e-02, 2.78608478e-03, 2.64626406e-02, 2.86967903e-02,
       -1.76536348e-02, 3.09151481e-03, 2.65508890e-02, 6.12235256e-03,
       -1.78887858e-05, 7.17372727e-03, 1.33702271e-02, -2.00055772e-03,
       9.77572892e-03, 1.17341978e-02, 1.85624734e-02, 1.89635605e-02,
       1.95470862e-02, -1.50795411e-02, 6.04187138e-03, 1.91563531e-03,
       -1.84944663e-02, 9.20818187e-03, 8.67418945e-03, 2.12065447e-02,
       7.80131575e-03, 1.34874415e-02, 3.26248184e-02, -6.10279525e-03,
       -2.17780899e-02, 5.83750708e-03, 1.11929476e-02, 2.68231588e-03,
       7.60117965e-03, 2.71209911e-03, -1.06300274e-02, 8.85198265e-03,
       -4.30829562e-02, -2.08880622e-02, -2.51889508e-02,
       -3.61542776e-03, -2.10944768e-02, -1.11746276e-03,
       -9.37713124e-03, 2.01684386e-02, 1.00466358e-02, 1.99260898e-02,
       1.45493252e-02, -4.88412241e-03, 3.19972693e-04, 6.44911255e-04,
       1.97023861e-02, -5.44456532e-03, 1.13606164e-02, -2.26233830e-03,
       -1.14003038e-02, -8.68940260e-03, -1.58317089e-02,
       -9.72434133e-03, -2.44046263e-02, -1.27314515e-02, 2.26145107e-02,
       -2.02129409e-02, 2.11746134e-02, -2.27216650e-02, 4.08731215e-03,
       -1.09985378e-02, -6.20010309e-04, -1.20005663e-02, 3.26202985e-06,
       4.71224212e-06, -3.53715383e-02, 2.04268354e-03, -2.86220405e-02,
       -2.07786132e-02, 1.94810908e-02, -1.89416334e-02, -3.38406838e-03,
       -6.06887741e-03, 1.13661299e-02, 2.44512353e-02, 4.82186750e-02,
       1.28956875e-02, 8.78564268e-03, 4.55013197e-03, 1.93112344e-02,
       7.07369111e-03, 1.89598110e-02, 5.54011762e-03, -3.52302603e-02,
       1.12005963e-03, -9.07632243e-03, 2.47247797e-03, 3.01190000e-02,
       -2.12870096e-03, -2.17077701e-04, 1.34039973e-03, -9.04273707e-03,
       -6.64326316e-03, -1.99602190e-02, -3.64345759e-02,
       -9.62709077e-03, 5.99546637e-03, 1.14151894e-03, -5.75395115e-03,
       -3.08825960e-03, 2.25159265e-02, -1.10949809e-02, -1.15366047e-02,
       -2.90311836e-02, 1.15966063e-03, 5.43452799e-03, -2.48517469e-02,
       -3.82450633e-02, -1.86156165e-02, -8.21823813e-03, 5.63988416e-03,
       6.45163003e-03, -2.24652700e-02, 3.32664847e-02, 1.64494682e-02,
       3.09702605e-02, -2.13205926e-02, 1.44146699e-02, -1.48478579e-02,
       3.52377561e-03, 2.39705592e-02, -1.97611153e-02, 2.33043917e-03,
       3.35586164e-03, 1.00552002e-02, -2.29091533e-02, -1.35402679e-02,
       -1.29811550e-02, -3.65353585e-03, -6.79090992e-03,
       -1.82820950e-02, 1.30973328e-02, 2.62247473e-02, 3.41998576e-03,
       6.23070926e-04, 2.15981882e-02, 3.13216299e-02, -2.29245853e-02,
       -4.12754714e-02, -5.42961992e-02, -2.46087834e-02,
       -1.88169461e-02, -3.75811793e-02, -2.91867945e-02, 3.81600112e-02,
       8.56047496e-03, 3.65986512e-03, 1.28851167e-03, -6.26081647e-03,
       2.86523271e-02, 2.42074244e-02, 1.71891339e-02, 1.26644289e-02,
       1.27088074e-02, 7.54631823e-03, -2.61621624e-02, -1.04507208e-02,
       -1.87872034e-02, 6.56643230e-03, -1.68711748e-02, 1.73488781e-02,
       -1.19373770e-02, 1.34924594e-02, -8.38628039e-03, 5.50635532e-03,
       -7.53122475e-03, -4.62837555e-02, -1.76228359e-02, 1.00956094e-02,
       -1.37334354e-02, -3.51726934e-02, 4.53701383e-03, -8.05282441e-04,
       -8.56647093e-04, 4.96502453e-03, -1.49260769e-02, -4.09572534e-02,
       4.91681451e-04, -1.50334798e-02, -2.88457163e-02, 1.26443068e-02,
       -2.73980424e-02, 9.11970716e-03, 2.59467680e-02, 1.19710611e-02,
       4.02241722e-02, 2.11928971e-02, 1.58140287e-02, -1.64779704e-02,
       1.03788376e-02, 4.25132876e-03, -1.34205474e-02, -1.37491114e-02,
       -2.59119570e-02, -6.97485870e-03, -1.44409081e-02,
       -1.03183370e-02, -2.29026396e-02, 8.80799349e-03, -2.19252706e-02,
       -2.50821076e-02, 8.33833683e-03, 2.75895186e-02, -3.96197289e-03,
       -8.53321608e-03, -5.84055716e-03, -2.30363067e-02, 1.75821241e-02,
       -8.80383234e-03, -1.26890065e-02, 1.59394853e-02, 1.29089167e-03,
       1.07117295e-02, -2.07792735e-03, 9.65105928e-03, -2.13381387e-02,
       1.15101663e-02, -1.06885210e-02, -9.68277454e-03, -1.52620748e-02,
       7.41617568e-03, 1.57269381e-03, -1.72829553e-02, 1.08214736e-03,
       -1.27303600e-02, 2.69990880e-02, 7.16277491e-03, -2.91088782e-02,
       -8.84954992e-04, 6.69414178e-03, 3.11866659e-03, -7.75042281e-04,
       1.58495072e-03, 5.60832629e-03, 1.38317067e-02, -3.08674877e-03,
       -2.03861576e-02, -1.24945687e-02, -1.68234874e-02, 4.87504853e-03,
       -6.77268021e-03, 1.59914028e-02, -1.23020355e-02, -4.23023803e-03,
       -5.63751208e-03, -5.60761010e-03, -1.92399472e-02,
       -3.34558487e-02, -2.48472262e-02, -1.08447578e-03, 1.32197626e-02,
       -2.01012529e-02, -1.62229594e-02, 9.55371466e-03, -2.51680682e-03,
       -3.10437498e-03, 5.15084248e-03, 1.17832320e-02, -1.70797277e-02,
       -5.08223411e-06, 1.80968270e-02, 2.62393411e-02, -1.07085463e-02,
       -2.09992174e-02, -1.06406929e-02, -2.65302472e-02,
       -6.70062471e-03, -4.10183100e-03, -8.71000160e-03,
       -7.61545822e-03, 2.19237581e-02, 1.04541844e-02, 7.77360285e-03,
       -1.41670636e-03, -2.48838942e-02, -2.30737100e-03, 3.32528586e-03,
       1.84578151e-02, -1.87175050e-02, 6.09729579e-03, 7.14532984e-03,
       -9.65489354e-03, -1.86946373e-02, -2.35465020e-02, 1.88035667e-02,
       9.23225097e-03, -9.57221910e-03, -2.47468483e-02, 1.36768110e-02,
       -1.69024039e-02, -6.93703070e-04, 2.72267824e-03, 6.39568549e-03,
       2.10322347e-02, 2.29288042e-02, 1.92828644e-02, -2.84710643e-03,
       2.72969306e-02, 3.99998948e-03, -2.08091713e-03, 1.71088502e-02,
       1.03221321e-02, 4.37272899e-02, 2.49742786e-03, -2.00362932e-02,
       -1.13711059e-02, 5.12245949e-03, -8.03614222e-03, -1.26368124e-02,
       -1.61545556e-02, -1.75787583e-02, 2.83420384e-02, 6.32444816e-03,
       3.83866508e-03, -2.69279070e-02, 1.04572752e-03, -3.66413221e-03,
       -2.12775376e-02, -5.65830851e-04, -4.02054526e-02,
       -2.07779352e-02, 8.33350141e-03, -2.87637301e-02, -3.48292328e-02,
       -2.78933700e-02, -2.05552243e-02, 1.21382242e-02, 1.12157864e-02,
       -1.68039314e-02, 2.09039096e-02, 5.67939645e-03, 1.12080472e-02,
       2.56256666e-03, -2.44399230e-03, 1.11010969e-02, -2.55520712e-03,
       -1.49516147e-02, -1.73958894e-02, -1.13264984e-02, 1.40792085e-02,
       1.66075304e-02, 2.28864863e-03, -9.82918125e-03, -6.12895004e-03,
       -1.42169166e-02, 9.13510099e-03, -1.17064165e-02, 1.76114775e-02,
       -4.68542380e-03, -2.63915174e-02, -2.58117057e-02,
       -3.21782492e-02, -4.08388767e-03, 1.95901990e-02, 2.84014479e-03,
       -2.55626813e-02, -2.30029523e-02, -2.54217125e-02,
       -4.31662463e-02, -1.25104040e-02, -1.89499669e-02, 2.18696930e-02,
       1.47287128e-02, 1.87724195e-02, 1.54701415e-02, 1.70721430e-02,
       2.25751940e-02, 3.67806554e-02, 1.38495108e-02, 8.09393916e-03,
       -5.92628960e-04, 5.22992224e-04, 8.57849140e-03, 4.95731458e-03,
       1.67856354e-03, 4.24226336e-02, 3.44690611e-03, 2.25360096e-02,
       9.03305504e-03, -1.55188059e-02, 2.25631353e-02, 1.75721552e-02,
       1.98294483e-02, 1.09689706e-03, -1.07695628e-03, -1.66776720e-02,
       1.05580790e-02, 2.40352806e-02, 2.97050979e-02, -1.19004759e-03,
       -1.67532489e-02, -2.35441816e-03, 1.87131180e-03, 2.03242749e-02,
       2.83942055e-02, -1.53816706e-02, -2.88693365e-02, 3.08526307e-03,
       -5.36300987e-03, 7.43115041e-03, -4.45386628e-03, -5.67784773e-05,
       3.71068902e-02, 1.93356834e-02, 3.14960466e-03, 1.48341805e-02,
       -6.75541209e-03, -3.88080045e-03, -1.56168891e-02, 1.33816507e-02,
       7.41307670e-03, 3.56020555e-02, 1.94293633e-02, -2.22236980e-02,
       -1.44251809e-02, -7.00839155e-04, 1.27582159e-02, -1.54159768e-02,
       -3.05107161e-02, -1.71217695e-02, -7.54543580e-03, 2.95338035e-02,
       7.28599029e-03, -1.33183962e-02, 3.51823568e-02, 1.65509749e-02,
       -3.56568731e-02, -4.51067975e-03, 3.27766426e-02, -4.36562710e-02,
       2.69442121e-03, 5.53636998e-03, 3.76045262e-03, 3.71356457e-02,
       4.19818424e-03, -1.98127404e-02, 1.23092644e-02, 6.97108544e-03,
       1.14862099e-02, 2.85091326e-02, -8.28490779e-03, -9.32501443e-03,
       1.64088886e-02, 1.69172436e-02, -5.18625826e-02, 7.66416872e-03,
       2.73303501e-02, -2.03967914e-02, 3.09992190e-02, 1.86556596e-02,
       -2.04690211e-02, 2.51519978e-02, 1.10736322e-02, -1.40644601e-02,
       -9.72777233e-03, 2.11848281e-02, 1.65166780e-02, -1.17795672e-02,
       -3.47155035e-02, -1.74978748e-02, 1.86333321e-02, 1.49879968e-02,
       1.99848451e-02, 1.38605088e-02, 1.01285763e-02, 2.26778127e-02,
       2.92681647e-03, 4.81828442e-03, 1.38907516e-02, 1.79904569e-02,
       -8.93217139e-03, -2.75018029e-02, -1.51929529e-02, 1.07715223e-02,
       -1.36115658e-03, 1.67010147e-02, -1.55199058e-02, 1.10362759e-02,
       3.15626562e-02, -2.80821492e-04, -3.09321024e-02, -1.26533853e-02,
       -5.61537361e-03, -1.15095880e-02, 2.14997809e-02, 2.42391657e-02,
       3.37352194e-02, 2.22898368e-02, 1.14055872e-02, -1.23312585e-02,
       -1.38018373e-02, -3.53136659e-02, 2.83068139e-02, -7.84680434e-03,
       -2.50828248e-02, -8.37443117e-03, 1.71801858e-02, 2.57536806e-02,
       -1.85005777e-02, -5.15514379e-03, -8.95963889e-03, 1.65166687e-02,
       1.16272476e-02, 1.64040143e-03, -1.95946102e-03, 3.67690027e-02,
       1.36159658e-02, -1.28698780e-03, -6.88848132e-03, -2.70482432e-02,
       2.91120890e-03, -3.07309022e-03, 3.91192269e-03, -2.11790409e-02,
       1.90052036e-02, 2.50022486e-02, 1.13415568e-04, 1.04819098e-02,
       2.23270748e-02, -2.52893027e-02, 3.46821873e-03, 1.17797730e-02,
       -5.84952580e-03, 6.88942662e-03, -1.00485533e-02, -1.50103448e-02,
       -1.82748213e-02, -1.86831923e-04, 2.79300995e-02, -1.11669796e-02,
       -2.51195151e-02, -1.65820289e-02, -7.45864585e-03, 1.46860089e-02,
       -1.32065909e-02, 1.33897283e-03, 4.73418550e-05, 1.05669964e-02,
       -1.57391385e-03, -1.77853886e-04, 3.20036523e-02, 1.04014389e-02,
       1.64892357e-02, -1.48367975e-02, 3.05114733e-03, 2.63445769e-02,
       3.57043073e-02, 8.29250924e-03, -3.09174974e-02, -2.43016612e-02,
       -5.66206127e-03, 3.62172653e-03, -3.20777576e-03, -7.70752458e-03,
       -7.77960010e-03, -1.59542204e-03, 1.59528386e-02, -1.75254736e-02,
       2.59039719e-02, -1.90976392e-02, -2.16114288e-03, -1.80782354e-03,
       7.25944480e-03, -4.22416739e-02, -1.31036062e-02, 2.06272607e-03,
       -7.05121274e-05, 1.58854504e-03, -1.96765903e-02, 1.93689801e-02,
       3.27103548e-02, -5.20332251e-03, -3.23145166e-02, 2.25829612e-02,
       2.34666187e-02, -1.02729853e-02, -1.90364029e-02, -1.53233847e-02,
       1.03016598e-02, 2.82088593e-02, 3.51819322e-02, -1.81977041e-02,
       -1.19667882e-02, -1.70230772e-03, 3.04243490e-02, 4.11398448e-02,
       -3.17736459e-03, -1.33373914e-02, 1.23268375e-02, -1.01767192e-02,
       -8.65601376e-03, 2.09459849e-02, 2.71736248e-03, 1.34020858e-02,
       -1.11716138e-02, -3.05493381e-02, 4.75544259e-02, 5.83727807e-02,
       -3.02624051e-03, -1.98113732e-02, 1.71429627e-02, 1.58808511e-02,
       5.14800474e-03, -1.08107645e-02, -1.68322548e-02, 1.43741174e-02,
       2.12705191e-02, -4.98018675e-02, -3.45464312e-02, 8.08378274e-04,
       -1.51516460e-02, -6.99968543e-03, -1.96223501e-02,
       -1.55653078e-02, 4.78875004e-02, 6.33682311e-02, -1.99027434e-02,
       -1.25776567e-02, -1.98817626e-02, 3.40023567e-03, 2.53276210e-02,
       8.16213991e-03, -1.96264349e-02, 2.18771566e-02, 3.96047086e-02,
       -3.63492370e-02, -1.53174317e-02, 4.97543067e-03, -1.28223235e-02,
       1.03366822e-02, -2.41477173e-02, -2.28131115e-02, 2.40230486e-02,
       3.52575220e-02, -1.01570403e-02, 7.11066066e-04, 2.72989981e-02,
       1.83128826e-02, -9.05806012e-03, -2.11068001e-02, 9.13209189e-03,
       5.31241065e-03, -1.76137441e-03, -7.27581792e-03, 1.98031608e-02,
       2.19381601e-02, -7.51054089e-04, -1.50936339e-02, -4.67717834e-03,
       -1.91287789e-02, 1.46958269e-02, 4.27427478e-02, 8.92011076e-03,
       1.04312655e-02, 5.41734882e-03, 1.95685495e-02, -3.39448964e-03,
       -2.75743417e-02, -2.48244107e-02, -2.04071943e-02, 9.79551114e-03,
       1.00838747e-02, 2.65639853e-02, 1.67822454e-03, -1.56714898e-02,
       4.86792671e-03, -2.51283534e-02, -3.26703563e-02, -2.01574340e-03,
       -3.12747210e-02, -2.46077050e-02, 6.50621811e-03, 1.60253569e-02,
       -2.11589448e-02, 1.48697069e-03, 1.37167552e-03, 2.86722532e-03,
       -2.84947362e-03, -3.23073380e-02, -1.09544871e-02,
       -9.66589898e-03, 2.61894725e-02, -1.14856549e-02, -9.24401358e-03,
       9.31517594e-03, 1.81932151e-02, 1.88238602e-02, 4.14892584e-02,
       -3.67377093e-03, 3.12112886e-02, 1.98995229e-03, -1.26934489e-02,
       2.86250561e-02, 4.13113739e-03, 1.30306941e-03, 7.82552455e-03,
       3.95843312e-02, -5.72599005e-03, -7.79142184e-03, 2.59996131e-02,
       -1.92748457e-02, -5.92433522e-03, -2.90987864e-02, 5.35520259e-03,
       1.86451524e-02, -1.68732218e-02, 4.78268182e-03, 7.61458883e-03,
       2.36828551e-02, -4.11187531e-03, -1.44699728e-02, 9.40493401e-03,
       2.58756150e-02, 6.04332145e-03, -1.97817925e-02, -2.91594956e-02,
       -1.57054402e-02, 1.88097693e-02, -1.22489398e-02, -3.39142978e-03,
       1.26335686e-02, -5.76076331e-03, 1.70435477e-02, 4.29417528e-02,
       -4.45817458e-03, 1.93330329e-02, 3.85658368e-02, 1.85048617e-02,
       -2.39688647e-03, 4.56297724e-03, -2.91868765e-03, 1.07009057e-02,
       2.27739122e-02, -1.92208793e-02, 1.67620275e-02, 2.54245102e-02,
       2.10253466e-02, -3.21893720e-03, -1.65868886e-02, 2.66076941e-02,
       -7.87002500e-03, 3.68162896e-03, -2.37586107e-02, 1.12983743e-02,
       7.70655880e-03, 1.70446727e-02, -1.61165576e-02, -1.01888704e-03,
       -1.41950231e-02, -5.78756258e-03, 6.68264832e-03, -1.35860266e-02,
       -1.02917822e-02, -9.00201872e-03, -7.58885453e-03,
       -1.29512642e-02, -1.81012228e-02, -1.98892821e-02,
       -3.33409035e-03, 2.31231488e-02, -1.18236914e-02, 4.70995829e-02,
       5.70326187e-02, 6.83091134e-02, 2.80450955e-02, 1.58676878e-02,
       9.09134932e-03, -6.56471821e-03, -1.55235212e-02, -4.36738104e-04,
       2.55573876e-02, 4.27168235e-02, 3.69960964e-02, -1.67624443e-03,
       -3.54844844e-04, -2.24981550e-02, 6.20623026e-03, 3.20744381e-04,
       -2.39454098e-02, -3.70800868e-02, -2.76910402e-02,
       -2.38512382e-02, -8.73639993e-03, 1.16265817e-02, -1.31905088e-02,
       -4.21661139e-03, 4.54774080e-03, -2.39125453e-02, -4.19734530e-02,
       -2.20016222e-02, -1.80484038e-02, -1.86195523e-02, 2.26097945e-02,
       -2.65215449e-02, 1.40873780e-02, 2.51555890e-02, -7.53345108e-03,
       2.84732366e-03, 2.09816117e-02, 2.10381858e-02, -1.73114780e-02,
       -4.46703081e-04, -2.39531640e-02, -2.37872098e-02, 9.28832963e-03,
       -1.23893050e-02, 1.26205757e-02, 6.44057710e-03, 6.91116927e-03,
       -3.03967055e-02, -2.07273439e-02, -2.91250870e-02,
       -1.54615156e-02, 1.23552484e-02, -2.73113027e-02, -3.08520123e-02,
       -1.10994168e-02, 7.41289463e-03, -1.01929829e-02, 1.94967501e-02,
       -1.35195907e-02, -2.41508838e-02, 2.31603961e-02, -1.49034103e-02,
       -5.36033604e-03, -2.24397946e-02, -2.15304233e-02,
       -3.29897739e-02, 1.18428934e-03, 1.51778292e-03, 2.10321490e-02,
       3.66514772e-02, 4.52262489e-03, 2.16164552e-02, 2.28241552e-02,
       2.34356914e-02, 3.75831034e-03, 9.32307541e-03, 6.13620970e-03,
       1.79428179e-02, 6.67709485e-02, -4.84793074e-03, 1.54995024e-02,
       3.43076251e-02, 1.53810410e-02, -2.24620979e-02, -9.25800577e-03,
       1.12844128e-02, -2.29247846e-03, 2.76893973e-02, -6.94049150e-03,
       -2.13376188e-04, -3.06737572e-02, 1.50373136e-03, -1.87000986e-02,
       1.36385215e-02, 1.88725218e-02, -1.04229394e-02, 7.55733857e-03,
       -1.00354701e-02, -3.89720546e-03, -2.67107803e-02,
       -5.81866223e-03, -1.49164494e-04, 7.73165794e-03, -3.93400118e-02,
       1.70373097e-02, 4.21833545e-02, -1.30311102e-02, -3.16126272e-03,
       2.20587738e-02, 2.72972714e-02, -2.50851605e-02, 5.48433140e-03,
       -1.41088301e-02, 6.71075284e-03, 2.69113723e-02, -6.91039534e-03,
       4.66742693e-03, 2.79107280e-02, 3.45216095e-02, 6.92986557e-03,
       2.13001622e-03, -2.26885919e-02, -7.07147270e-03, 3.98282846e-03,
       -8.47095251e-03, -1.15080485e-02, -3.38133723e-02, 6.18938939e-04,
       -1.12435753e-02, 3.38764803e-04, -2.01284289e-02, -1.20286057e-02,
       -2.97616627e-02, -1.95256900e-02, -3.62337986e-03, 1.19991861e-02,
       -2.98309494e-02, -2.38315053e-02, -5.83877647e-03,
       -2.05576364e-02, 1.69376191e-02, 4.96728420e-02, 1.41303726e-02,
       2.61630025e-02, 4.13449071e-02, 6.23991340e-02, 1.18446825e-02,
       2.41528396e-02, 8.31568241e-03, 1.52105382e-02, 2.69865915e-02,
       3.00079770e-02, 1.69334672e-02, 4.78718840e-02, 3.03645544e-02,
       -4.57971543e-03, 4.22773249e-02, 2.62344489e-04, -5.11808030e-04,
       -2.11195964e-02, -1.14156713e-03, -1.16182650e-02,
       -2.45765690e-02, 1.63084399e-02, 1.79911796e-02, 2.59686206e-02,
       -1.05258301e-02, 2.67913938e-03, -1.47685856e-02, -5.80678787e-03,
       -1.33192837e-02, -2.64798123e-02, -1.16931144e-02,
       -1.58289559e-02, 1.23435864e-02, 2.08382271e-02, 3.21634151e-02,
       8.64823163e-03, 4.23323475e-02, 2.53158305e-02, -1.30147033e-03,
       7.39130676e-02, 4.44078706e-02, 5.96850514e-02, 1.12112490e-02,
       -3.37399580e-02, -5.19018136e-02, -7.87980668e-03, 1.06163872e-02,
       1.15380911e-02, 4.66274172e-02, -1.75631698e-02, -4.51748259e-03,
       -1.29764182e-02, -1.92347299e-02, -1.99420028e-03, 1.11184362e-02,
       7.91072659e-03, 6.44122949e-03, -5.34857484e-03, 4.84205829e-03,
       1.41558088e-02, 1.64766610e-02, 4.60937852e-03, -4.14866582e-02,
       4.07145359e-03, 2.68949308e-02, -1.75180230e-02, -1.81217473e-02,
       -7.79759232e-03, -2.55700294e-02, 1.16737066e-02, -1.50344232e-02,
       -8.40934925e-03, 3.16799060e-02, 1.87887885e-02, 2.47768331e-02,
       9.97181144e-03, -2.87908199e-03, -1.16057845e-03, 1.16842077e-03,
       4.88155661e-03, -4.66153994e-02, 2.91729756e-02, 3.33598293e-02,
       2.60862173e-03, -1.41814006e-02, -5.99819748e-03, -5.49191870e-02,
       -2.02328730e-02, -3.15893702e-02, -1.66421523e-03, 1.20305540e-02,
       3.84156145e-02, 3.14870998e-02, -2.75798491e-03, -1.33622112e-02,
       -1.62730329e-02, -3.28204385e-03, -9.58035327e-03,
       -1.45099284e-02, 5.52162947e-03, 2.47895159e-02, 9.50469449e-03,
       -5.83870849e-03, -4.10137931e-03, 1.62713267e-02, 2.24196054e-02,
       1.68506894e-02, -1.36215547e-02, 2.55483761e-03, 2.25000288e-02,
       2.52465829e-02, -9.89395101e-03, -3.00435387e-02, -1.89097263e-02,
       2.03025620e-02, -5.74070774e-03, -3.78334075e-02, -2.51849033e-02,
       2.74651055e-03, -3.01610567e-02, 1.74554978e-02, -1.84976459e-02,
       -1.91973560e-02, 1.84328910e-02, -4.80921753e-02, -2.51078866e-02,
       1.56112167e-03, -8.02173186e-03, -1.59401540e-02, -6.33805767e-02,
       -2.98272818e-02, -2.15218980e-02, -1.30496249e-02, 2.33505922e-03,
       2.83829551e-02, 2.29403172e-02, 3.63411866e-02, -5.92099736e-03,
       -2.79482789e-02, -1.61191840e-02, 7.74253160e-03, 6.04606699e-03,
       -2.18991786e-02, 1.03869730e-04, 7.58070424e-02, 6.48412630e-02,
       2.41724942e-02, -1.25988806e-02, -1.97668783e-02, -5.71298935e-02,
       -3.26919407e-02, 2.23011859e-02, 7.83886388e-02, 7.00541660e-02,
       7.87443221e-02, -3.39737646e-02, -1.18858311e-02, 7.45753851e-03,
       1.68751031e-02, 9.66423657e-03, 1.28456149e-02, 6.51521236e-03,
       -2.18982194e-02, -1.99851929e-03, 1.45613943e-04, -1.85060091e-02,
       -1.33599425e-02, 2.21846513e-02, 2.53205001e-02, -2.89205089e-02,
       -3.48839015e-02, -1.49664236e-02, 1.25914020e-02, 1.12242065e-02,
       -3.37869581e-03, 5.90930134e-03, 5.10315523e-02, -8.09010025e-03,
       4.23307344e-02, 1.18150162e-02, -3.84265669e-02, 5.38032502e-03,
       -1.44290156e-03, -1.67831685e-02, 8.46174359e-03, 7.27303848e-02,
       7.12393001e-02, 2.31034867e-02, -1.29567124e-02, 9.95351840e-03,
       5.60570024e-02, 1.81499291e-02, 1.26246922e-02, 4.90032062e-02,
       8.09174404e-02, 5.62957712e-02, 2.01103254e-03, 7.44094253e-02,
       1.17213674e-01, 7.28848651e-02, 1.95426843e-03, -3.28088813e-02,
       4.16013878e-03, 4.54333834e-02, -2.43858844e-02, -1.15166954e-03,
       5.27550504e-02, 3.34532559e-02, 1.36764236e-02, -3.37463394e-02,
       -5.00740707e-02, -4.52334210e-02, -2.35537235e-02,
       -6.21796288e-02, -6.51098136e-03, 6.52886629e-02, 1.01719834e-01,
       7.73249865e-02, 1.97959710e-02, -6.59289397e-03, 1.02003645e-02,
       6.33799583e-02, 1.23645598e-02, -1.02100009e-02, 3.95346317e-04,
       2.83420533e-02, -1.23584783e-03, -3.78322490e-02, -3.22372690e-02,
       -1.05515886e-02, -1.87970158e-02, -3.70079242e-02, 4.08973172e-02,
       8.09583738e-02, 1.76680498e-02, 3.09006893e-03, -3.27928513e-02,
       -6.25713961e-03, 1.59080196e-02, 1.65568702e-02, -1.18617602e-02,
       -6.94264099e-03, 3.07414662e-02, -2.19891556e-02, -1.53412232e-02,
       -8.60277656e-03, -1.62435472e-02, 2.48868410e-02, 1.53871989e-02,
       1.03622191e-02, 2.19841697e-03, 1.34715075e-02, -2.89287847e-02,
       -3.90201546e-02, -4.99608889e-02, 5.27162664e-03, 2.40071435e-02,
       2.16319822e-02, -2.27338299e-02, -1.44358128e-02, 2.70335324e-04,
       -2.78054066e-02, -3.65434960e-02, -1.21687809e-02,
       -1.22549850e-02, -4.15082090e-03, 1.66503079e-02, 1.60915572e-02,
       -3.43496818e-03, 4.08884734e-02, -1.21261214e-03, -5.65097202e-04,
       -2.94466224e-02, -4.44143405e-03, 2.22167443e-03, 2.07325574e-02,
       2.82056630e-02, 8.29431135e-03, 7.16822222e-02, 7.76904542e-03,
       2.65653133e-02, -2.20751390e-02, 1.05497111e-02, 1.60503108e-02,
       4.86714765e-02, -1.18320305e-02, -1.33130467e-02, 2.22694352e-02,
       -1.04502486e-02, -1.45268459e-02, -2.33623441e-02,
       -2.77764145e-02, -1.74035616e-02, 1.18453680e-02, -3.59797734e-03,
       -3.26497917e-04, 2.50633564e-02, -1.07767014e-02, -4.02079001e-02,
       -1.16796372e-02, -1.86017957e-02, 3.97922751e-03, -2.13573733e-03,
       -2.49769520e-02, 1.91411059e-02, 6.92656636e-02, 2.27593910e-02,
       2.27115415e-02, -4.03094850e-02, -2.88491719e-03, 3.04782949e-02,
       4.73452657e-02, 2.96416450e-02, 3.70556787e-02, 7.69373924e-02,
       -4.48408350e-03, -2.09303629e-02, -1.47798425e-02,
       -3.20099220e-02, 2.32509803e-02, -1.53414567e-03, 5.83960488e-03,
       -1.30236698e-02, 1.17588658e-02, -1.61591137e-03, -8.99922568e-03,
       -2.62121055e-02, 4.75759991e-03, 4.99895820e-03, 4.53622313e-03,
       -2.42726468e-02, 2.79149460e-03, 1.02202520e-02, -8.89427215e-03,
       -3.25610377e-02, -2.68871970e-02, -2.66094506e-02,
       -2.61203963e-02, -8.22559185e-03, -9.99818929e-03, 4.92932163e-02,
       6.61307573e-02, 1.32277263e-02, 1.58300176e-02, 1.09222634e-02,
       1.40840467e-02, 1.36922719e-02, 1.51268281e-02, 2.39211060e-02,
       3.95651236e-02, 3.75373028e-02, 1.69044640e-03, 9.39215359e-04,
       2.09342744e-02, 5.44958049e-03, 1.49309384e-02, 3.90603356e-02,
       5.56722581e-02, 1.71630830e-02, 1.62093677e-02, -1.01357056e-02,
       -9.44014825e-03, -3.43457721e-02, 1.50212580e-02, -5.37641608e-05,
       2.42942870e-02, -3.42692398e-02, -2.35870611e-02, -3.33810295e-03,
       -1.44326221e-02, -4.74780090e-02, 2.46312208e-02, -1.20858382e-02,
       -2.64652260e-02, -1.78030867e-03, -1.37492614e-02, 3.70605290e-03,
       2.14415938e-02, -7.87374377e-03, -8.89030751e-03, 1.26472919e-03,
       2.21794713e-02, 2.17684396e-02, 5.58271259e-02, 5.37482463e-02,
       2.00589970e-02, 9.33728367e-03, -1.60318241e-02, -2.19978392e-02,
       1.64058916e-02, 2.22450066e-02, 1.48015972e-02, 5.12815528e-02,
       1.89760197e-02, -3.10716331e-02, 1.51603511e-02, -1.38185425e-02,
       -2.92418972e-02, -2.11474858e-02, -1.61459995e-03,
       -1.35661094e-02, 2.30804328e-02, 3.55850370e-03, 5.93249919e-03,
       -1.12859150e-02, -2.33448427e-02, -2.30969395e-02,
       -6.22622482e-03, 8.15309060e-04, -2.89241429e-02, 3.20942067e-02,
       -4.40995675e-03, 1.76704638e-02, 1.48343928e-02, -1.80518236e-02,
       -3.16414908e-02, -1.80526115e-02, -1.67575702e-02,
       -3.01725287e-02, 1.31843416e-02, 3.03302333e-02, 9.09807347e-03,
       3.01260687e-02, -1.71258543e-02, -2.56006606e-02, -8.25907011e-03,
       -5.20638376e-03, -4.04425450e-02, 6.23415923e-03, 1.91600528e-02,
       9.98344505e-04, 1.85386278e-03, -2.59645041e-02, -3.18259113e-02,
       -2.73815934e-02, -1.31242787e-02, -3.36071439e-02, 1.05843134e-02,
       3.04600480e-03, 1.53598897e-02, 2.38906424e-02, -1.24856401e-02,
       -3.95851880e-02, -5.68790920e-03, 1.04178756e-03, -1.63405724e-02,
       8.21790658e-03, 1.30420420e-02, 1.60381501e-03, 2.16068942e-02,
       -3.11737563e-02, -2.44762544e-02, -4.84216213e-03, 1.55402310e-02,
       -2.88297702e-02, 2.85156374e-03, -7.37436069e-03, 8.57576635e-03,
       2.87115201e-02, -3.21877152e-02, 3.41139478e-03, -1.72818694e-02,
       -2.17590611e-02, -2.89336611e-02, -8.96255579e-03, 4.37602215e-03,
       -1.46717569e-02, 4.94389832e-02, -1.04138674e-02, -3.05020064e-02,
       -2.36051846e-02, 1.31013123e-02, 6.96877192e-04, 1.11373374e-02,
       -1.97970308e-02, 1.24787800e-02, 3.31971645e-02, -2.94958521e-02,
       -1.21181281e-02, -2.75494587e-02, -6.22078264e-03,
       -1.74263143e-04, -7.69492378e-03, 3.14099938e-02, -1.08934399e-02,
       1.01739625e-02, -1.91790387e-02, -9.67574160e-05, -2.16485579e-02,
       -2.83500180e-02, -4.14496958e-02, 3.57011054e-03, -3.98587110e-03,
       -8.80717940e-04, -5.98179293e-04, -3.54578532e-02,
       -1.38788139e-02, -6.87951921e-03, -2.48107798e-02,
       -3.94682074e-03, 6.10202737e-03, 5.57079026e-03, -9.40447382e-04,
       -8.68331827e-03, -3.30533497e-02, -7.73597090e-03,
       -1.39967250e-02, -2.81597544e-02, -3.42845656e-02, 3.75369750e-02,
       2.19193865e-02, -1.15811985e-04, 8.45223945e-03, -7.63230911e-03,
       3.91632691e-03, 9.12564900e-03, -1.41090676e-02, -7.19047524e-03,
       2.76890397e-02, 3.22804675e-02, 6.57069171e-03, 4.49458510e-02,
       -7.66298873e-03, -1.59216914e-02, -1.33830961e-02, 2.72971578e-03,
       7.12235272e-03, 9.64494981e-03, -4.08938201e-03, -2.49090083e-02,
       -8.16114363e-04, -6.42317580e-03, -2.70782709e-02, 5.12105599e-03,
       -3.63546088e-02, -1.21824490e-02, -9.24738939e-04,
       -2.39435099e-02, 1.49977568e-03, 6.54252172e-02, 5.28782308e-02,
       2.08353903e-02, -3.30390525e-03, 2.31147874e-02, 2.16704700e-02,
       2.30715014e-02, 1.74094122e-02, -6.69949688e-03, 5.26286326e-02,
       4.99338917e-02, 2.42920034e-02, 2.64218152e-02, 4.77552740e-03,
       3.15603078e-03, 8.09349772e-03, -2.92854710e-03, 1.60246785e-03,
       -1.82956271e-02, 1.01842377e-02, 6.18648529e-03, 2.11805198e-02,
       4.70043793e-02, 4.63499688e-02, 2.06523594e-02, 1.01968171e-02,
       -7.17881974e-03, -5.14057539e-02, -2.68577877e-02,
       -4.81571145e-02, -1.36477537e-02, -9.43854218e-04,
       -3.35030109e-02, -2.79862750e-02, -2.06473358e-02, 3.48453261e-02,
       5.70101440e-02, 5.68920448e-02, 4.75002266e-02, 6.55455440e-02,
       7.62595162e-02, 6.33172020e-02, 3.18236910e-02, 3.80178913e-02,
       -3.27865098e-04, -9.07444581e-03, -3.33642811e-02,
       -5.80209866e-02, 1.68108530e-02, 2.51599569e-02, 1.05419965e-03,
       -4.04853001e-02, -1.19966837e-02, 3.78375407e-03, -1.94390304e-03,
       2.78878324e-02, 7.26901041e-03, -2.13268120e-03, 2.88122986e-03,
       -2.04131398e-02, -5.34637133e-04, -3.60140088e-03,
       -1.03529012e-02, -4.42811288e-02, 9.76846926e-03, 1.52152982e-02,
       -2.35266704e-02, 4.28894768e-04, 7.17505871e-04, -5.44223972e-02,
       -2.92044971e-02, 1.75697748e-02, 9.06716380e-03, 1.85054215e-03,
       1.04444299e-03, -8.43128748e-03, 2.25471444e-02, 2.43804026e-02,
       -1.39081534e-02, 1.28849335e-02, 1.65179763e-02, -1.89828929e-02,
       -2.17981208e-02, -1.28714158e-03, -2.02428196e-02, 1.75690819e-02,
       1.10137016e-02, -3.86491120e-02, -1.77211631e-02, 5.14355376e-02,
       -3.58678810e-02, -2.27151271e-02, -5.65662561e-03, 5.54905273e-04,
       -1.52241588e-02, -2.91829724e-02, -4.51875944e-03, 6.35613948e-02,
       4.15348522e-02, -1.82877351e-02, -2.41335034e-02, -1.42616965e-02,
       1.20512291e-03, 1.27209220e-02, -1.99822243e-02, -2.16634180e-02,
       4.88248244e-02, 2.84675416e-02, -2.95169484e-02, -1.37467673e-02,
       3.02568288e-03, -1.44289406e-02, -1.26953621e-03, -1.67698991e-02,
       -2.60763746e-02, 4.02856842e-02, 4.49142568e-02, -3.94192245e-03,
       3.70238372e-03, 4.32314649e-02, -1.28461886e-02, 2.24823859e-02,
       -2.17077080e-02, -6.21746574e-03, 3.13528217e-02, -3.71868499e-02,
       -8.61203019e-03, 5.15086390e-02, 2.40624733e-02, 1.87312588e-02,
       1.17688067e-02, 1.20024541e-02, -2.16438361e-02, -3.43848728e-02,
       -3.27043980e-02, 5.30371703e-02, 4.62644175e-02, 5.82361110e-02,
       -2.39719562e-02, 3.21474485e-02, 2.27942467e-02, 1.31997196e-02,
       -4.40491289e-02, -1.97804719e-02, -7.55737349e-03, 2.28063930e-02,
       1.31004043e-02, 2.75858622e-02, 4.89878841e-02, 6.24520667e-02,
       -1.43148971e-03, -3.65541056e-02, -2.92236377e-02, 1.07761631e-02,
       3.42049412e-02, 4.11589853e-02, -5.39374771e-03, 5.40662669e-02,
       7.19800517e-02, 5.73060401e-02, -2.72254031e-02, 5.19702323e-02,
       4.38594110e-02, 9.62143647e-04, 2.08643638e-02, -7.84812309e-03,
       -7.78826093e-03, -1.19105466e-02, 5.32349870e-02, 4.27903086e-02,
       2.47382633e-02, 1.72650907e-03, 8.14160705e-03, 3.27709056e-02,
       1.66594591e-02, -2.98607908e-03, 1.83162242e-02, 4.13157344e-02,
       1.71898454e-02, 5.77254780e-02, 5.75085543e-02, 1.45765096e-02,
       6.17772806e-03, -4.92213760e-03, 7.25890324e-03, -1.01724761e-02,
       3.58282886e-02, 5.03461026e-02, 1.60408113e-02, 2.34601293e-02,
       2.46012490e-02, -2.24651080e-02, 1.04548992e-03, 6.94007380e-03,
       3.04704588e-02, 1.08790863e-02, -1.51637746e-02, -8.31952225e-03,
       3.12134791e-02, 6.56494349e-02, 5.00514321e-02, 2.77642384e-02,
       6.36116713e-02, 5.34971766e-02, 6.08481839e-02, 9.14327241e-03,
       -4.74352017e-02, -5.30954031e-03, -2.61799153e-02, 1.60436041e-03,
       2.86287628e-02, 1.77669793e-03, 1.05996272e-02, -5.44516789e-03,
       -1.94709376e-02, 1.99294765e-03, 1.46769555e-02, 5.03353886e-02,
       3.64910662e-02, 1.52104516e-02, 4.86869887e-02, 8.53544325e-02,
       3.86626571e-02, -3.25340256e-02, -3.35408859e-02, -3.73106822e-02,
       1.00506535e-02, -4.51612845e-03, 2.73586735e-02, -1.69042982e-02,
       -2.32352819e-02, -3.28293703e-02, -2.89670210e-02,
       -2.52243392e-02, 3.06796525e-02, 4.84755356e-03, 9.62041505e-03,
       -4.13857885e-02, 2.27927528e-02, 8.09203461e-03, 3.65315117e-02,
       -1.26082543e-02, -2.70997901e-02, -8.76988843e-03,
       -1.63239203e-02, -3.14486437e-02, -2.80932281e-02, 2.43239128e-03,
       -1.24289086e-02, -3.79594695e-03, -2.22706329e-02,
       -2.32118778e-02, 1.87625438e-02, 3.51921171e-02, -8.51435214e-03,
       -3.90886851e-02, 1.50559854e-03, -1.49494763e-02, 1.90070976e-04,
       3.51889362e-03, -2.16160156e-02, 1.25183037e-03, -2.54953746e-02,
       -4.77528349e-02, -3.39677334e-02, -3.66045944e-02,
       -4.81948592e-02, -1.61511991e-02, -2.19136495e-02,
       -1.67390965e-02, 1.09509928e-02, 3.33195290e-04, 9.41741338e-04,
       7.29893567e-04, 2.59722527e-02, 1.01456679e-02, 1.26582021e-02,
       -4.78152931e-03, -1.07957423e-02, 4.50218357e-02, 1.26407137e-02,
       -1.93992406e-02, -8.53841472e-03, 5.82911447e-03, 1.75681133e-02,
       1.83234103e-02, -4.00051624e-02, 1.05462060e-03, 1.62274484e-02,
       -1.31450891e-02, -1.40713435e-02, -5.03306976e-03,
       -4.47523035e-03, -2.06918307e-02, 1.64336935e-02, -9.39736329e-03,
       -3.13936509e-02, 4.30352287e-03, -1.71673275e-03, -3.06267478e-02,
       -1.51131833e-02, -2.88056005e-02, -1.54788950e-02,
       -5.83755830e-03, -3.47790755e-02, -2.73634158e-02, 1.25642549e-02,
       6.18713535e-03, 1.78913660e-02, -1.13230208e-02, 2.17864309e-02,
       -8.87252390e-03, -5.58879040e-03, -3.70104834e-02,
       -7.79745588e-03, -8.44280701e-03, 1.46506215e-02, 2.13964432e-02,
       4.27195616e-03, 2.66742595e-02, -3.84689937e-03, -1.04572652e-02,
       -2.75365673e-02, -3.80030684e-02, -1.96785275e-02, 5.63988322e-03,
       8.89206864e-03, 9.77576803e-03, -1.73036810e-02, -1.85698923e-02,
       -1.23500554e-02, -3.58290225e-02, -9.24882106e-03,
       -2.97265742e-02, 4.26444365e-03, 1.37850363e-02, 3.33668403e-02,
       1.20902027e-03, -1.04026971e-02, -2.34901682e-02, -2.99570221e-03,
       2.80830381e-03, 5.46908518e-03, 2.88367588e-02, 2.75802203e-02,
       6.32894412e-03, 4.10852768e-02, 3.26096872e-03, 2.07702145e-02,
       -3.74507420e-02, 1.58613957e-02, -9.30743292e-03, 3.30598163e-03,
       8.15316942e-03, 3.85504924e-02, 7.56564038e-03, 3.32725653e-03,
       -5.39159263e-03, -1.53853456e-02, -2.85962708e-02,
       -1.21404408e-02, 2.92018559e-02, 3.18950899e-02, 2.40150690e-02,
       1.28771821e-02, 1.17742224e-02, 6.45077147e-04, -2.34308280e-02,
       -3.18423696e-02, 6.73312647e-03, -1.48419933e-02, -1.98243260e-02,
       3.93875763e-02, -9.85375885e-03, 1.08894659e-03, -7.75100617e-03,
       -2.39622854e-02, -1.11429282e-02, 2.77015474e-03, -9.12510790e-03,
       -3.08910245e-03, -1.91006288e-02, -1.18416816e-03,
       -2.44880766e-02, -3.28227226e-03, 1.49205700e-02, 2.43730936e-02,
       4.65249754e-02, 4.47223010e-03, -9.36157885e-04, -1.03949569e-02,
       -2.91760713e-02, -5.49491644e-02, 1.51047101e-02, 1.24413688e-02,
       -6.46668923e-08, 2.57669482e-02, -3.96057069e-02, -1.27123238e-03,
       1.14389071e-02, -1.85702741e-02, 8.02581850e-03, 2.75527779e-02,
       -3.54178436e-02, 5.33265760e-03, 4.49636839e-02, -2.11516246e-02,
       -2.68095024e-02, -4.66592330e-03, -1.65143162e-02,
       -6.42478280e-03, 2.42666453e-02, 1.82283800e-02, -1.47311520e-02,
       3.45495157e-02, -6.96884654e-03, -6.37718849e-03, -6.12815563e-03,
       -1.33784171e-02, -3.50370482e-02, 2.93653196e-04, 2.90666986e-03,
       -1.36959376e-02, 5.60585149e-02, 1.16754733e-02, -1.87998340e-02,
       -8.16631876e-03, -2.42812280e-02, -5.53980411e-04, 2.34306119e-02,
       3.72215919e-02, -1.75015032e-02, 5.00014890e-03, -2.51604468e-02,
       -1.06803318e-02, 8.18364695e-03, -7.03297136e-03, -1.22186346e-02,
       2.30510440e-02, 3.40627594e-04, 9.23305191e-03, 3.57784033e-02,
       -1.33153936e-03, -1.91757288e-02, -2.55547762e-02,
       -4.26290371e-02, 2.04572584e-02, 3.83329205e-02, 1.17644630e-02,
       4.56997845e-03, 5.08707054e-02, -3.23192356e-03, -1.07643548e-02,
       -1.08511106e-03, -8.70237709e-04, -6.73383288e-03, 3.16353403e-02,
       5.51314931e-03, 2.30607204e-02, 1.57752784e-03, -5.57685345e-02,
       -1.02905380e-02, -4.19386737e-02, -2.43220124e-02,
       -1.27619030e-02, 1.43808674e-03, 1.15246316e-02, 2.45409901e-03,
       1.66316312e-02, -1.17018549e-02, -8.20899499e-04, 1.44951604e-02,
       -3.96816246e-02, -5.26957121e-03, 6.76133260e-02, 8.18449445e-03,
       -1.03976773e-02, -1.78019181e-02, -3.32950093e-02, 8.03576410e-03,
       -2.41668243e-02, -5.27001582e-02, -4.63435724e-02, 2.65885387e-02,
       3.26745445e-03, -5.24752261e-03, 2.49281945e-03, -2.71994751e-02,
       4.48059430e-03, 7.67448405e-03, -1.15665020e-02, -3.33711319e-02,
       -2.29224898e-02, 4.66578687e-03, -6.82791881e-03, 1.52107887e-02,
       7.42612407e-03, 1.17514119e-03, -2.57773977e-02, -5.78972232e-03,
       3.85336787e-03, 1.03912931e-02, 9.84933786e-03, -5.27896499e-03,
       -2.37953886e-02, -5.74803166e-02, 4.75687732e-04, -1.51570588e-02,
       -2.16311123e-02, -1.93121172e-02, 1.29812872e-02, -7.82139041e-03,
       2.15430725e-02, 4.73891897e-03, -1.34458784e-02, -1.50708584e-02,
       -2.10049879e-02, -1.07510136e-02, -7.26242957e-04, 3.09294853e-02,
       -9.44004767e-03, -1.66532230e-02, 1.99040081e-02, 2.56658401e-02,
       1.52807850e-02, -4.06741276e-02, 2.84815067e-03, 5.47414087e-03,
       1.22940671e-02, 1.39131965e-02, 1.11908605e-02, 2.67785080e-02,
       2.40516607e-02, 1.30700627e-02, 2.40179375e-02, -1.93564668e-02,
       1.44802721e-03, 2.28479039e-02, 3.11686564e-02, 3.44957858e-02,
       1.68620348e-02, -3.96467978e-03, 8.00098572e-03, -1.55871129e-02,
       2.42364854e-02, -8.92273523e-03, 3.05430386e-02, -2.58460287e-02,
       2.75958814e-02, 7.97615293e-03, -1.08500458e-02, 5.48596785e-04,
       3.18208300e-02, -1.79238562e-02, -8.97304621e-03, 2.21236143e-02,
       2.46294290e-02, 3.92108075e-02, 5.57447076e-02, 2.53427140e-02,
       3.58664133e-02, 7.05413446e-02, 4.70654853e-02, 1.97687391e-02,
       2.67184377e-02, 5.40058315e-02, -1.75634827e-02, -1.74862482e-02,
       -3.56403552e-02, -6.66279867e-02, -1.17643327e-02,
       -1.34287393e-02, -4.91449470e-03, -4.05162834e-02,
       -1.59148860e-03, 2.99196392e-02, 1.75071564e-02, 3.24585737e-04,
       3.92502919e-02, 6.31758049e-02, 2.33280566e-02, 1.45829516e-03,
       4.91150133e-02, 4.04265635e-02, -1.45781459e-02, -3.37597542e-02,
       -2.34857481e-02, -2.41151564e-02, 2.77022459e-02, -3.81016620e-02,
       -4.91017364e-02, -6.34172633e-02, -2.46062409e-02, 2.28860155e-02,
       -6.36580680e-03, 2.42322031e-03, 2.87360549e-02, -5.68639161e-03,
       2.84053590e-02, 2.85436828e-02, -2.76366845e-02, 1.77698955e-02,
       2.45273802e-02, -8.47990904e-03, -1.62877534e-02, -2.26391070e-02,
       -1.60972718e-02, 1.44740166e-02, 5.13654493e-04, -2.71660313e-02,
       4.10173181e-03, 2.78145960e-03, -1.39075946e-02, 2.15220507e-02,
       5.63999042e-02, -1.10759968e-02, 1.09229665e-02, -8.48483574e-03,
       -3.44224870e-02, 3.94579489e-03, -2.40458697e-02, -3.25035155e-02,
       -1.64272711e-02, -4.37598862e-03, 1.32535410e-03, -2.49196030e-03,
       -2.11167857e-02, -4.03274707e-02, -1.77337639e-02, 3.69405723e-03,
       -1.62377057e-03, -3.10157030e-03, 8.56006145e-03, -4.48849751e-03,
       -7.05954805e-03, -1.47416652e-03, -1.03386352e-02,
       -1.02728056e-02, 7.23607931e-03, -4.29405458e-03, -2.26675104e-02,
       1.57219376e-02, -3.06668095e-02, 8.85428116e-03, -2.48281062e-02,
       -2.40088683e-02, -1.05473753e-02, 1.01442123e-02, -1.68800075e-02,
       8.04221816e-03, 1.99581999e-02, -6.56852685e-03, 1.28582772e-02,
       1.56100178e-02, 4.41239774e-03, -2.97366246e-03, 1.18408585e-02,
       2.04411009e-03, 1.34076579e-02, 7.75082363e-03, 8.38250201e-03,
       7.86324218e-03, 8.17154441e-03, 2.14676047e-03, 8.12082086e-03,
       -2.24822089e-02, -3.30059826e-02, -2.53286827e-02,
       -2.53470503e-02, 3.45531926e-02, 7.26105124e-02, 4.85752486e-02,
       2.39327876e-03, -2.62098331e-02, -1.44595280e-02, -2.65390379e-04,
       2.87383366e-02, 1.95616763e-02, 3.29075730e-03, 5.81702627e-02,
       5.95364310e-02, 5.05397879e-02, 8.18032958e-03, -1.53532643e-02,
       -3.95319872e-02, -2.21671313e-02, -4.73591648e-02, 1.10900588e-02,
       -4.32609431e-02, -9.91307106e-03, -2.82046460e-02,
       -3.36989053e-02, 5.81497746e-03, -1.67792290e-02, -9.97977052e-03,
       -9.91422962e-03, -3.25791445e-03, 2.28405520e-02, 2.88378261e-02,
       1.39872730e-02, 1.33883217e-02, 6.11549579e-02, 5.09666726e-02,
       1.23269483e-02, -8.86463281e-03, 1.24638733e-02, -1.28735304e-02,
       -3.25392745e-02, -3.40129156e-03, 3.19175869e-02, 4.29392122e-02,
       7.14454129e-02, 1.35133583e-02, -5.72055532e-03, 3.17111518e-03,
       2.61132419e-02, 2.48922333e-02, -3.31369340e-02, -9.78933088e-03,
       6.74659312e-02, 2.70440634e-02, -1.11276759e-02, -3.21688270e-03,
       1.51338344e-02, -3.84164117e-02, -2.26819403e-02, -5.13859605e-03,
       5.51343262e-02, 3.29971239e-02, 5.01147620e-02, 3.50094913e-03,
       -9.97096393e-03, 2.22197194e-02, -1.31825805e-02, -2.36052368e-02,
       -7.33107179e-02, -1.68407373e-02, 2.60079675e-03, 4.50658463e-02,
       1.64707135e-02, -8.58357991e-04, -2.67447438e-03, 8.04116726e-02,
       1.04718313e-01, 3.87947001e-02, -6.01152033e-02, -2.68358290e-02,
       -2.47105788e-02, -1.87019557e-02, -3.13664526e-02,
       -2.92010419e-02, -6.19745906e-03, 2.53024828e-02, -4.85797471e-04,
       -1.59840491e-02, -1.67752206e-02, 3.22082676e-02, 1.65913184e-03,
       -3.27295288e-02, 3.25087719e-02, 8.78060609e-02, 1.08216926e-01,
       7.62028620e-02, -1.57884024e-02, -2.39151102e-02, -2.09092237e-02,
       -2.08877735e-02, -3.32756117e-02, -2.56634154e-03, 1.71304750e-03,
       2.57701632e-02, 4.76365611e-02, -3.64374556e-03, -1.58054158e-02,
       1.10591669e-02, 1.94456559e-02, -4.12535947e-03, -5.48911840e-02,
       -2.21963581e-02, -1.35235740e-02, 1.32086733e-02, 1.25306528e-02,
       1.12471897e-02, 1.46915652e-02, -6.09553128e-04, -3.12302038e-02,
       -1.39406919e-02, -2.33078003e-02, -3.54314484e-02,
       -1.00358697e-02, -3.86124314e-03, -2.51408499e-02,
       -4.25500562e-03, 1.14839966e-03, 7.00374739e-03, -1.81669686e-02,
       1.27659729e-02, 1.27689624e-02, 5.87722100e-02, 2.04754379e-02,
       -1.20095918e-02, 3.64071969e-03, -1.91221118e-03, -2.02254392e-02,
       -1.59262400e-02, 6.88511040e-03, -8.30569863e-03, 3.33205462e-02,
       1.24505889e-02, 8.18180735e-04, -4.22565546e-03, -4.73867403e-03,
       -1.60029586e-02, -2.15246640e-02, -1.06150117e-02,
       -3.42378020e-02, 2.20795292e-02, 4.68876399e-03, -7.49699352e-03,
       -1.55972363e-02, -6.34714821e-03, -2.26207320e-02,
       -5.83628286e-03, -1.93751119e-02, -3.42351124e-02, 4.00042981e-02,
       1.33347511e-02, 2.02244911e-02, 2.81029730e-03, 2.03723763e-03,
       -5.38008660e-03, -3.95494513e-03, -6.10755151e-03, 9.55288578e-03,
       5.59204891e-02, 2.55252030e-02, 8.63240380e-03, 2.07182392e-02,
       1.74213257e-02, 1.60238296e-02, 2.79163430e-03, -1.10841785e-02,
       -2.45812326e-03, 6.79970756e-02, 2.76727751e-02, -1.38805499e-02,
       1.92347995e-03, 2.12556198e-02, 3.30683310e-03, -1.37177929e-02,
       5.16255037e-04, -1.85091682e-02, 2.35672649e-02, 6.14028284e-03,
       -8.42766929e-03, -1.17212124e-02, -7.10880570e-03,
       -2.48761866e-02, -2.33935099e-02, -1.14845177e-02,
       -1.78396478e-02, 2.02873778e-02, 1.65421880e-04, -3.68650910e-03,
       1.16433650e-02, 2.10662838e-02, 4.16660961e-03, -2.90633999e-02,
       1.88284740e-03, -6.82109082e-03, 6.49485141e-02, -1.45599165e-03,
       -2.81999856e-02, -1.77959707e-02, 5.04232012e-02, -1.00882128e-02,
       6.23938045e-04, -1.82393324e-02, -2.19937172e-02, 4.65916805e-02,
       1.60918385e-02, -3.86712737e-02, -6.77621458e-03, -6.80546695e-03,
       -3.83012649e-03, -3.44450660e-02, -7.11102271e-03,
       -1.66366212e-02, 3.01154759e-02, 1.41242603e-02, -2.03501452e-02,
       1.07909217e-02, -4.29818593e-02, -2.33779512e-02, -1.16387820e-02,
       -6.59098998e-02, -3.84824537e-02, -3.76944081e-03,
       -3.19809839e-02, -2.53276341e-03, -6.24945061e-03, 1.30164418e-02,
       1.14046820e-02, 1.71081547e-03, -1.40460825e-03, 5.00310166e-03,
       4.39161360e-02, 4.38024662e-02, 4.71549146e-02, 4.47294191e-02,
       -1.68371517e-02, 7.55297393e-03, 1.56940911e-02, -1.60281323e-02,
       -7.79250870e-03, 1.84862036e-02, 3.69150192e-02, 1.30426558e-02,
       3.14219743e-02, -3.82455848e-02, -7.67209043e-04, -1.26734786e-02,
       -3.81102450e-02, -2.50916667e-02, 2.85246465e-02, -2.80711409e-02,
       2.43943930e-02, 1.16376383e-02, -4.48623858e-02, 7.39059737e-03,
       -1.29547780e-02, -1.46269770e-02, -1.49715422e-02,
       -2.35559512e-03, -1.75357163e-02, 4.76488061e-02, 5.77870645e-02,
       -1.05781332e-02, 3.08881328e-02, -3.21484497e-03, -7.24268565e-03,
       -1.88048948e-02, 8.32013413e-03, 5.19950502e-03, 8.15264881e-03,
       1.65395662e-02, -2.14446280e-02, 9.87055525e-03, -1.39520671e-02,
       -1.98718589e-02, 8.34656786e-03, 6.85505336e-03, 2.07432155e-02,
       -1.63653679e-02, 1.40728978e-02, -3.15654241e-02, -5.55914547e-03,
       -1.71049163e-02, 8.38109478e-03, 8.73731740e-04, 7.54705025e-03,
       -1.29019050e-02, 1.83432698e-02, -2.61089369e-03, -3.96812335e-02,
       -1.85080394e-02, -3.15304175e-02, -2.04963256e-02,
       -6.93524070e-03, 3.14420126e-02, -1.73222902e-03, 5.64022362e-03,
       -1.98989809e-02, -2.30886042e-02, -2.83670053e-03,
       -1.61591750e-02, -1.32835787e-02, -1.32149355e-02, 1.10540427e-02,
       2.18525920e-02, -1.21332649e-02, -2.67720558e-02, -6.31875098e-02,
       -4.26184312e-02, -2.96287276e-02, -2.43875850e-02,
       -2.77153347e-02, 1.04569001e-02, 3.77709116e-03, -8.85854196e-03,
       2.09320616e-02, -3.43879266e-03, 1.15248291e-02, 1.58398971e-02,
       -1.60320923e-02, -1.49523886e-02, 6.87151998e-02, -8.85947607e-03,
       1.00492258e-02, 8.57798196e-03, 6.85443543e-03, 1.47947147e-02,
       -2.17070850e-03, -5.44420676e-04, -2.39060912e-02, 3.36795896e-02,
       2.34087016e-02, -3.54766399e-02, -2.43925080e-02, -5.34640700e-02,
       -1.71869192e-02, 2.40240209e-02, -1.36542022e-02, -4.18596119e-02,
       2.02999581e-02, -1.94053240e-02, -1.10585243e-02, -1.16071999e-02,
       -1.82737838e-02, -1.43023850e-02, 3.56532410e-02, 1.63475648e-02,
       -4.34677042e-02, 5.09068090e-03, 8.81147292e-03, 2.26639826e-02,
       2.77599450e-02, -2.79097818e-02, -6.42685778e-03, -1.69024151e-02,
       -4.78178263e-03, -1.95099320e-02, 7.71360751e-03, 4.69753472e-03,
       4.83867675e-02, 4.67262268e-02, -1.33007197e-02, -1.83387995e-02,
       -2.47292649e-02, 7.71894353e-04, -2.02307175e-03, 5.10423332e-02,
       -4.64888988e-03, -1.82516966e-02, -4.18744143e-03,
       -4.27326374e-02, -3.29858288e-02, 3.53964698e-03, 4.40894486e-03,
       -8.03636014e-03, 2.69266833e-02, -1.94116458e-02, 1.24518936e-02,
       -1.95386494e-03, -3.17796282e-02, -4.01362777e-02,
       -1.82857439e-02, -3.83507647e-02, -2.39711888e-02, 4.67875181e-03,
       1.03995791e-02, 3.24186385e-02, 3.26786377e-02, 2.01600753e-02,
       1.48306349e-02, 2.50969715e-02, 4.64316308e-02, 2.23195869e-02,
       7.30267763e-02, 2.47986503e-02, 1.71355065e-02, 8.19441956e-03,
       -7.85878766e-03, 1.60682257e-02, 1.52341919e-02, 2.26687584e-02,
       2.29629185e-02, 4.23577465e-02, 2.89147943e-02, 3.94332735e-03,
       3.48966965e-03, -2.24996749e-02, -1.44065572e-02, 1.53189222e-03,
       -1.12939349e-04, 8.88466369e-03, 2.98258811e-02, 5.48293581e-03,
       -3.33435759e-02, -1.55430567e-02, -3.65202688e-02,
       -3.47215235e-02, 1.45523960e-03, -3.72517519e-02, -2.12361030e-02,
       3.64573020e-03, -3.65615301e-02, 3.43495645e-02, 2.80462969e-02,
       2.43944637e-02, 5.88501431e-02, 7.19288960e-02, 4.71342765e-02,
       2.02932227e-02, 6.63988665e-02, 4.53091003e-02, 1.70962214e-02,
       -1.97097957e-02, -1.15443030e-02, 1.30557530e-02, 3.75135615e-02,
       -3.22276838e-02, -5.20396121e-02, -4.26876731e-02,
       -1.25927292e-03, 2.92185210e-02, 8.70682951e-03, 3.00286897e-02,
       3.13869081e-02, 4.23787236e-02, 2.19815727e-02, 9.05467663e-03,
       1.28731476e-02, 1.73482473e-03, 5.48068434e-03, -4.67094444e-02,
       -1.34056602e-02, 6.86679548e-03, 2.88612419e-03, -4.04422358e-02,
       -4.80218045e-02, -7.41695017e-02, -7.17748795e-03, 3.26657481e-02,
       -1.61498610e-03, -2.84286914e-03, 2.20598821e-02, -3.18174735e-02,
       -5.69209410e-03, -6.08178135e-03, -5.08233439e-04, 1.46843744e-02,
       -1.80848353e-02, -3.19976695e-02, -1.24455420e-02, 1.91399027e-02,
       -1.21987248e-02, 2.45845057e-02, -1.43185174e-02, -3.55197228e-02,
       -5.91575401e-03, 3.17547023e-02, 9.18350369e-03, 4.21071047e-04,
       1.04692653e-02, -4.76365531e-04, 1.39469504e-02, 6.21277746e-03,
       5.80220018e-03, 3.38325575e-02, 5.07721212e-03, -2.48131193e-02,
       8.18888377e-03, 4.98805381e-02, -4.05653892e-03, 2.61543673e-02,
       -1.59733016e-02, -1.48411412e-02, 1.17569854e-02, 1.34886513e-02,
       -3.29096466e-02, -2.88921762e-02, -7.23292772e-03, 3.78317316e-03,
       6.83867978e-03, -1.01695275e-02, -7.37268617e-03, 1.26451068e-02,
       6.03388902e-03, 1.09377606e-02, 1.24785965e-02, -5.28937066e-03,
       -1.33061968e-02, -9.65292379e-03, 1.40113328e-02, 8.31716228e-03,
       6.48821983e-03, -1.30903302e-02, -3.00014913e-02, -2.15410460e-02,
       2.99241710e-02, 3.05738468e-02, 3.18550542e-02, -1.22160399e-02,
       -4.37114621e-03, 1.99906919e-02, 1.53182140e-02, 2.68002935e-02,
       6.24903059e-03, 4.69745845e-02, -2.62799067e-03, 2.19872985e-02,
       -3.95424460e-04, 1.69064943e-02, 2.15149093e-02, 8.99118371e-03,
       -2.69239806e-02, -9.16956272e-03, -2.51487107e-03, 2.27001626e-02,
       -1.97649989e-02, 2.11424548e-02, 1.07889799e-02, -4.14999900e-03,
       1.06146345e-02, -2.80420426e-02, -2.04916671e-02, 9.66805092e-04,
       -2.51222197e-02, -9.83695686e-03, 3.52655277e-02, 7.45132193e-03,
       2.09904779e-02, 2.01963242e-02, 7.92966504e-03, -2.53730286e-02,
       9.06468835e-03, 8.35369807e-03, -1.42607223e-02, -8.23841151e-03,
       -4.42196522e-03, 2.60410905e-02, 1.50251193e-02, -1.01816831e-02,
       -9.49805509e-03, 1.47467799e-04, 1.11688310e-02, 2.43599992e-03,
       -1.23455683e-02, -1.07733253e-02, 4.20222953e-02, 1.78594198e-02,
       -2.16098465e-02, -4.82944101e-02, 2.02698894e-02, 4.20455784e-02,
       -2.96174618e-03, 4.80065960e-03, -6.03616878e-04, 1.75411124e-02,
       -4.13497211e-03, 2.72524916e-02, -3.79659748e-03, 1.01096081e-02,
       -3.86220077e-03, -5.67538105e-03, -1.75928213e-02,
       -2.96877418e-02, -2.85056122e-02, -2.08525527e-02,
       -1.93844456e-02, -2.28883643e-02, -1.61435059e-03, 4.56346758e-02,
       2.08096951e-02, -5.92618482e-03, -8.25152639e-03, 1.22381784e-02,
       1.68829430e-02, 2.13318430e-02, 2.10114177e-02, -9.41613875e-03,
       8.14563315e-03, 2.62230523e-02, 1.98421590e-02, 6.92526856e-03,
       1.65567398e-02, 8.17332976e-03, 3.19494382e-02, 1.38776852e-02,
       -1.85788888e-02, -6.17222767e-03, 1.66136920e-02, 3.03808693e-02,
       4.23259996e-02, -1.46097373e-02, -2.08220165e-02, -1.54138710e-02,
       -9.20675602e-03, -6.12335512e-03, 1.19811483e-03, 8.80191475e-03,
       -2.31464636e-02, 1.67126618e-02, -1.68363247e-02, -1.13684935e-02,
       1.06704039e-02, 1.80231165e-02, -6.26790430e-03, -5.08756377e-03,
       -7.61889433e-03, 1.96160539e-03, 1.47127523e-03, -1.47928307e-02,
       1.30893150e-03, 5.29036298e-03, -1.94533002e-02, 7.03498721e-03,
       -5.04219672e-03, -4.77037812e-03, -2.81386189e-02, 1.42536275e-02,
       2.69074142e-02, -3.07780709e-02, 6.19429024e-03, -7.47846998e-03,
       2.23618131e-02, 2.44140765e-03, -1.60156582e-02, -4.87308130e-02,
       6.31338656e-02, 2.34656390e-02, -3.88666093e-02, 2.54763261e-04,
       3.14982492e-03, -1.91579610e-02, 1.75489485e-02, 8.25054385e-03,
       -5.58194220e-02, 2.66454313e-02, 4.18493524e-03, -1.53433215e-02,
       5.44037716e-03, 4.57710540e-03, 1.14202397e-02, 8.54432117e-03,
       -8.34824797e-03, -1.03411302e-02, 3.65446173e-02, 2.56671924e-02,
       -1.32521102e-02, 1.06266467e-02, 8.07458628e-03, -5.45087131e-03,
       -1.08379889e-02, -2.03591716e-02, -3.71426120e-02, 2.09384952e-02,
       -4.06876812e-03, -1.86866205e-02, 2.29740664e-02, 2.29955297e-02,
       2.23015156e-02, 3.12836580e-02, 2.99942344e-02, 1.27478139e-02,
       5.78295626e-02, 1.18415114e-02, -3.56625207e-02, 1.25750918e-02,
       6.55351393e-03, 6.86764345e-03, 1.85190793e-02, 1.61352642e-02,
       1.09977406e-02, 3.01220696e-02, -1.20528424e-02, 2.13835854e-02,
       1.04083437e-02, -2.03483668e-03, 6.87274290e-03, 7.90458545e-03,
       -1.06637776e-02, -1.20154023e-02, 2.43461821e-02, 2.73584425e-02,
       1.55406063e-02, 1.07838167e-02, -1.60628315e-02, -2.53176019e-02,
       2.29866225e-02, -1.14262523e-02, -1.21564865e-02, -1.00510651e-02,
       -4.11158428e-03, -2.19828021e-02, 3.09150643e-03, 8.54945835e-03,
       9.08567663e-03, -9.12663247e-03, -3.71124130e-03, -1.09157609e-02,
       4.30332310e-02, 2.26727556e-02, -1.58886574e-02, 2.10658691e-04,
       1.68336313e-02, -3.19057750e-03, 2.18301583e-02, -1.87202133e-02,
       -1.39734643e-02, 2.80099511e-02, 1.65039767e-02, -1.38597870e-02,
       2.07879189e-02, -2.19913367e-02, -1.56383142e-02, 1.32656870e-02,
       5.45867952e-03, -1.34003591e-02, 8.92426260e-03, -1.38125913e-02,
       -1.60558559e-02, 1.23859178e-02, -2.03578230e-02, -1.75779732e-03,
       1.15084006e-02, -2.97860410e-02, 5.59004908e-03, 1.05724558e-02,
       -2.22169627e-02, -2.88875221e-04, 1.97816119e-02, 1.09114004e-02,
       2.98328586e-02, 1.41759198e-02, -1.39080221e-02, -6.94056042e-03,
       2.79037673e-02, 4.03667018e-02, -9.03492421e-03, -5.03322389e-03,
       -2.11533140e-02, 2.88447514e-02, 3.03482804e-02, 2.75349393e-02,
       -1.17192157e-02, 1.41500505e-02, 1.36639746e-02, 2.87637617e-02,
       2.65330784e-02, -1.43152458e-04, 1.85747887e-03, -6.54231431e-03,
       -1.42747769e-02, -8.21343996e-03, 2.60634022e-03, -1.73121680e-05,
       8.23495630e-03, 1.47658242e-02, 9.64257587e-03, 6.30160887e-03,
       -3.44495435e-04, 1.17179994e-02, -1.73699018e-02, 4.24340088e-03,
       8.97393748e-03, -2.88840570e-03, 2.45882925e-02, 6.18665246e-03,
       6.34002388e-02, 4.50996310e-02, 5.07989824e-02, -1.49973650e-02,
       1.61381923e-02, -1.88194420e-02, -2.10726615e-02, -1.12638399e-02,
       -6.76798914e-03, 2.44072564e-02, 3.41710411e-02, 2.48005055e-02,
       8.18867981e-03, 1.25860423e-02, -2.19898447e-02, 1.02417171e-02,
       1.50842993e-02, -1.64384488e-02, 1.48341414e-02, -1.75919384e-02,
       7.78387720e-03, -3.17503065e-02, 4.57519293e-03, -1.76151358e-02,
       5.63502638e-03, 3.33962403e-03, -8.70671310e-03, -8.62266775e-03,
       -7.61830900e-03, -5.71878627e-03, -2.88686827e-02, 9.86761693e-03,
       -1.73365849e-03, -3.84922773e-02, -6.16359385e-03,
       -6.73380448e-03, 1.35372235e-02, 1.26527734e-02, 2.20000325e-03,
       -1.65234525e-02, 4.83785830e-02, -3.24452738e-03, -2.83963326e-02,
       -1.34518463e-02, -2.23790016e-02, -7.20877526e-03,
       -5.74367167e-03, -2.26642448e-03, -1.93971973e-02, 6.21402711e-02,
       8.60959350e-04, -7.49072805e-03, 6.26283884e-03, 1.22868677e-03,
       -1.55610818e-04, -3.57725122e-03, -5.43589285e-03,
       -2.34700982e-02, -2.82581896e-03, -8.24916642e-03,
       -2.21723747e-02, -8.74824915e-03, -1.51721970e-03,
       -1.25774601e-03, -1.22503852e-02, 3.00342659e-03, -1.89813692e-02,
       8.62951670e-03, -1.94090325e-02, 1.02647217e-02, 3.03582568e-03,
       -7.66835082e-03, 2.11210214e-02, 5.72776087e-02, 4.33384925e-02,
       2.46692612e-03, 4.85515781e-02, 1.88767258e-02, -2.61307508e-03,
       -6.58740522e-03, -1.39600122e-02, 2.58550141e-02, 2.05072667e-02,
       3.09058074e-02, -1.33001292e-02, 2.30574533e-02, -9.66160279e-03,
       -2.15796959e-02, -1.39383189e-02, -1.82294641e-02, 1.09019456e-03,
       1.48328701e-02, 7.80951325e-03, -8.32159352e-03, -5.76986698e-03,
       -2.69988701e-02, -7.38764415e-03, -1.80164985e-02,
       -3.26058902e-02, -2.37576198e-02, -1.10071171e-02, 1.47264386e-02,
       -1.37602380e-02, -1.74544584e-02, -1.15624154e-02,
       -1.05334623e-02, 8.57055187e-03, -1.22104045e-02, 2.88121700e-02,
       3.04966513e-02, 2.86970325e-02, 6.76706946e-03, 3.52328904e-02,
       1.52471941e-02, -2.25784741e-02, 1.57690477e-02, -2.34466069e-03,
       2.54265796e-02, 1.82500649e-02, 1.55985886e-02, 1.72950402e-02,
       1.50489518e-02, 1.03556961e-02, 1.00283138e-02, -9.55642387e-03,
       -3.27933915e-02, 4.42700600e-03, -5.83563349e-04, 1.84487887e-02,
       5.89592149e-03, 1.03497263e-02, 7.94902910e-03, -2.22637523e-02,
       -2.37752348e-02, -3.87496538e-02, -3.08408812e-02,
       -1.83106903e-02, -3.26316580e-02, 5.86168200e-04, -1.00784712e-02,
       5.46247838e-03, 1.10972924e-02, 4.26297113e-02, 1.61858462e-02,
       5.68244085e-02, 5.96623719e-02, 5.01904078e-02, 4.70040031e-02,
       3.07963062e-02, 4.92101861e-03, 6.43969094e-03, 2.73418687e-02,
       1.74655870e-03, 1.24055427e-02, -5.32538584e-03, 2.70287483e-03,
       2.02019215e-02, 1.80055667e-02, -7.48375105e-03, -9.90876369e-03,
       7.20726093e-03, -5.41057903e-03, -2.22349316e-02, -2.98767388e-02,
       1.19529897e-02, 3.91819552e-02, 1.39285056e-02, 2.53030169e-03,
       -1.45896478e-02, -8.32717214e-03, -2.95075197e-02,
       -2.38931663e-02, -1.39169730e-02, -2.26990916e-02,
       -6.54357893e-04, -1.82909612e-02, -1.19249581e-03, 1.74876731e-02,
       3.20578367e-02, 4.10649180e-02, 4.53188606e-02, -6.37042988e-03,
       1.47080831e-02, 2.74316724e-02, 1.69523768e-02, 1.61458012e-02,
       7.49100232e-04, -9.43348929e-03, 3.36582353e-03, -1.48879620e-03,
       6.41522056e-05, -1.17069623e-02, 1.24212159e-02, -3.34799327e-02,
       -1.87442284e-02, 1.14320721e-02, 1.06982570e-02, 2.35052034e-02,
       2.48440728e-03, -2.05966718e-02, -1.62883587e-02, 2.20506806e-02,
       -9.33038257e-03, 2.24941429e-02, 9.95060895e-03, -9.94963851e-03,
       -2.79002693e-02, -2.35541649e-02, -1.14143491e-02,
       -1.15817497e-02, 1.17985243e-02, -1.17864199e-02, 1.41690960e-02,
       3.15464921e-02, 1.67828351e-02, -8.78739636e-04, -1.15928212e-02,
       -2.80354191e-02, -1.02265999e-02, 2.85904668e-02, 9.97993629e-04,
       5.81568060e-03, -8.16327706e-03, -3.89412306e-02, 7.61568174e-03,
       -3.22090625e-03, -1.34207029e-02, 1.80527680e-02, 4.33769030e-03,
       -3.75802256e-02, -9.89175052e-04, 2.52410732e-02, 1.84310693e-02,
       1.27921253e-02, 2.20222063e-02, -1.27408188e-02, 2.28021927e-02,
       3.02919336e-02, -5.58154704e-03, 3.69877275e-03, 4.13962919e-03,
       -3.03528495e-02, -9.28440597e-04, -8.82265810e-03,
       -6.85878657e-03, 3.01660635e-02, 1.54134920e-02, -3.49623263e-02,
       1.16013978e-02, -2.34517604e-02, -2.72117350e-02, -3.49874198e-02,
       3.66504258e-03, 3.84522118e-02, 2.04459243e-02, -1.09744910e-02,
       -4.59314557e-03, 2.32452173e-02, -5.90914208e-03, 2.50260048e-02,
       1.56263623e-03, 3.24731804e-02, 1.62361674e-02, 3.63388173e-02,
       9.80504416e-03, 6.10176288e-03, 1.69796906e-02, 2.58598365e-02,
       -2.48110350e-02, -1.26396865e-02, -1.31912951e-04, 2.25449121e-03,
       3.17352563e-02, -2.70423945e-02, -4.32148539e-02, 6.73832279e-03,
       3.54727767e-02, 3.82472551e-03, -1.04453731e-02, 5.28670149e-03,
       -1.19683901e-02, 3.00672650e-02, 2.02132035e-02, -1.27903298e-02,
       5.88487135e-03, -2.28019636e-02, 7.87431095e-03, -4.53953631e-03,
       1.91861787e-03, 2.12849118e-02, -2.78055668e-04, 1.53942802e-03,
       1.08632809e-02, -1.45262608e-03, 1.79411727e-03, 1.58024277e-03,
       2.40032631e-03, 1.90484207e-02, 9.71522834e-03, -7.37234345e-03,
       1.01284910e-04, 2.11141799e-02, 4.03054170e-02, 2.34347302e-02,
       1.61092021e-02, 1.29337441e-02, 1.21525107e-02, 2.41313521e-02,
       -3.92460235e-04, 1.37386937e-02, -4.97947121e-03, 8.53518862e-03,
       3.09924856e-02, 2.66837738e-02, 1.19821830e-02, 4.27127294e-02,
       -2.47881357e-02, -2.16039759e-03, 7.99282268e-03, -5.58448432e-04,
       3.38351838e-02, -2.21766811e-02, -2.79166293e-03, -2.13020314e-02,
       -7.77177373e-03, 5.16927103e-03, -6.44523883e-03, -1.12729147e-02,
       4.23167227e-03, 2.51687169e-02, 1.82874233e-03, 2.08812393e-02,
       2.18356363e-02, -9.34635568e-03, -1.17894728e-02, 1.85257699e-02,
       -1.99615746e-03, 1.04482081e-02, 2.58207936e-02, -1.82832927e-02,
       8.00112914e-03, 2.39994330e-03, 4.12447825e-02, 1.36935189e-02,
       2.56931013e-03, -3.90480831e-03, -1.53253200e-02, 9.65054613e-03,
       3.52450497e-02, 1.46303521e-02, 2.57662702e-02, 3.27253155e-02,
       -7.20623042e-03, 3.74379046e-02, 1.71270482e-02, 1.00342240e-02,
       2.93291435e-02, -1.92486625e-02, 3.04371081e-02, 1.51197957e-02,
       -1.96681321e-02, -1.52336266e-02, 1.46375634e-02, -8.27950425e-03,
       2.27054469e-02, -1.33886223e-03, -1.47636665e-03, 1.75925661e-02,
       7.24626007e-03, 1.10186206e-03, -6.60960898e-02, -1.27830819e-04,
       -1.50856189e-02, 2.11340562e-03, -5.14449785e-03, -1.72260553e-02,
       -6.73745526e-03, 3.56544391e-03, 3.05961398e-03, 7.56151602e-03,
       -1.31130946e-04, -2.96202907e-03, 1.41101126e-02, 5.85389696e-03,
       -2.23665293e-02, 1.36503503e-02, -3.19097075e-03, -6.92622829e-03,
       -3.95710394e-02, -6.06052577e-03, -1.61009431e-02,
       -2.38826172e-03, -3.55852433e-02, -3.63430171e-03, 5.73943090e-03,
       2.69665662e-02, 2.75228582e-02, -6.24681823e-03, 1.86968427e-02,
       5.65680116e-03, 3.05910241e-02, 5.43824770e-03, -4.36854828e-03,
       2.67574855e-04, 2.37548817e-03, -9.11393017e-03, -2.62049101e-02,
       1.49024802e-03, -3.54328901e-02, -7.44247204e-03, -1.59092806e-02,
       -3.42544424e-03, 1.99371427e-02, -5.45531930e-03, 6.03857357e-03,
       8.27600248e-03, 1.86145883e-02, -9.27457120e-03, 2.57433988e-02,
       -1.64794084e-02, -2.91349110e-03, -1.31824156e-02,
       -2.65365168e-02, -2.74858531e-02, -3.49244365e-04,
       -2.14585885e-02, -3.27346213e-02, 2.21393537e-03, -9.38515365e-03,
       -9.05518699e-03, 2.59254593e-02, 7.86769949e-03, 2.24469807e-02,
       1.93815995e-02, 3.01728770e-02, -6.99672243e-03, -4.85191308e-03,
       3.70081961e-02, 3.97951668e-03, 1.07458783e-02, -1.99675113e-02,
       -1.34570552e-02, -1.39678046e-02, 1.08166570e-02, -1.28522776e-02,
       2.14602128e-02, 1.45081319e-02, -4.82644746e-03, 2.00892165e-02,
       -6.56069315e-04, 1.28566958e-02, 4.48933505e-02, 2.27886010e-02,
       -1.65706649e-02, -4.54801694e-03, -7.82360695e-03,
       -4.78035631e-03, 5.18095307e-03, -2.28675026e-02, -1.27066718e-02,
       1.71026010e-02, -1.09347031e-02, -1.15227373e-02, -1.26732131e-02,
       -1.64291635e-02, 6.55653246e-04, 4.30765487e-02, -1.48974061e-02,
       2.66995095e-03, 1.38243455e-02, 3.71468663e-02, -2.70846137e-03,
       2.69131605e-02, 1.97163504e-02, -2.33265013e-02, 1.32000223e-02,
       -4.24037203e-02, 5.59691433e-03, 8.14243860e-04, 1.44887231e-02,
       -4.47330996e-03, 1.04484232e-02, -2.96065789e-02, 6.03158772e-03,
       1.11952974e-02, -3.36361192e-02, 9.56229807e-04, 6.61094068e-03,
       -5.66314766e-03, -1.22426953e-02, -4.24921280e-03,
       -3.33984895e-03, 4.31027077e-03, 2.99606789e-02, -3.82661782e-02,
       -2.87941620e-02, -2.76153977e-03, 3.94312385e-03, -1.78225152e-02,
       -4.04973142e-03, -3.39880632e-03, -9.89439152e-03, 2.98135467e-02,
       -4.15383931e-03, -1.91426394e-03, -1.18325530e-02, 1.84992813e-02,
       -3.87499458e-03, 2.00866815e-02, -3.20971897e-03, -1.40945930e-02,
       2.60108374e-02, 5.19082556e-03, -4.96293372e-03, -2.37716865e-02,
       -5.77111612e-04, -1.46188363e-02, 3.92222032e-03, -6.99865958e-03,
       -6.85707666e-03, 1.12851067e-02, -4.42321748e-02, -3.23682018e-02,
       -9.59136989e-04, 2.59336587e-02, -1.27196787e-02, 1.56127587e-02,
       -3.76691739e-03, -1.84515659e-02, 3.55906691e-03, -3.31861749e-02,
       5.16065629e-03, 1.44577557e-02, -1.35896178e-02, -1.01948306e-02,
       8.03221192e-05, -5.85275888e-03, 2.31308434e-02, 1.67438854e-02,
       -5.37004275e-03, 1.13349659e-02, -2.32584625e-02, -1.51523398e-02,
       -1.46204913e-02, -6.16234588e-03, -2.43737968e-03,
       -1.50484825e-02, 8.17705225e-03, -2.88617387e-02, -1.46968551e-02,
       -3.24584432e-02, -2.94039045e-02, -1.14159752e-02, 1.68217476e-02,
       7.05260754e-05, 5.63142169e-03, 1.02431402e-02, -1.73618812e-02,
       2.42966209e-02, 1.42347533e-02, 2.43456811e-02, 1.78086143e-02,
       -2.91358028e-03, -1.68200061e-02, 1.15852375e-02, 6.33210875e-03,
       -1.51186818e-02, 6.82230433e-03, 6.33211806e-03, 2.73243967e-03,
       3.60698160e-03, -6.07497117e-04, -6.54683216e-03, 1.11526055e-02,
       1.89924221e-02, -1.87042486e-02, 5.39568299e-03, -8.42108391e-03,
       2.06162706e-02, 7.21410103e-03, 1.88866891e-02, 1.73580609e-02,
       6.40498940e-03, 1.20403180e-02, -1.60659552e-02, 5.98104205e-03,
       -1.74867809e-02, 1.82961822e-02, -1.50828268e-02, 1.34067107e-02,
       -2.99483282e-03, 2.19385661e-02, -2.37445123e-02, -2.18244884e-02,
       -7.89846294e-04, 3.85424937e-03, 2.30311626e-03, -1.91050656e-02,
       3.19921039e-03, -6.77925255e-03, 2.75307451e-03, -3.24266255e-02,
       -2.72507221e-02, 2.70613329e-03, 7.65437726e-03, -2.64292266e-02,
       -3.54645029e-02, 1.10024652e-02, 7.01266574e-03, -4.82268631e-03,
       2.13012006e-02, -1.08297849e-02, 1.14524197e-02, -8.72181263e-03,
       2.39733011e-02, 1.60667039e-02, 1.18105421e-02, 1.29038999e-02,
       -1.21717118e-02, 5.03344089e-03, 6.24281261e-03, 4.56623588e-04,
       -2.63346545e-02, 2.81673223e-02, 3.57771991e-03, 2.45880708e-03,
       9.61544458e-03, -2.30325793e-04, -2.12438777e-02, -1.19650243e-02,
       5.78072201e-03, 1.51692396e-02, 6.47326326e-03, -2.17927527e-02,
       -9.59689822e-03, 2.25932673e-02, -1.99619438e-02, -5.71443699e-04,
       6.38172217e-03, -8.74469616e-03, -1.93663649e-02, -5.93757629e-03,
       -6.54008426e-03, -2.00423729e-02, -1.20401829e-02, 2.58426345e-03,
       1.44394487e-02, 9.28584207e-03, 3.31099145e-02, -1.79577712e-02,
       3.94229107e-02, 5.89594617e-03, 2.33988576e-02, 2.35508066e-02,
       -4.36964538e-03, -2.27112435e-02, -1.32550644e-02, 8.97192396e-03,
       -7.23061059e-03, -3.29641774e-02, 2.26652963e-04, 1.03885110e-03,
       -5.46216033e-03, -1.91342905e-02, 2.34943833e-02, -7.28481915e-03,
       -8.22751597e-03, 1.10153453e-02, 1.94603149e-02, 1.06615480e-02,
       5.44756977e-03, -3.19172442e-02, -2.66275126e-02, -1.42010336e-03,
       -3.08214929e-02, 3.05932807e-03, 1.27948413e-03, -1.93682574e-02,
       -4.13487405e-02, -3.18389124e-04, -3.88670117e-02,
       -6.09594351e-03, 3.90800461e-03, 3.49290483e-03, 1.52268214e-02,
       -3.81833105e-03, 2.96448097e-02, 2.18607187e-02, -5.49172005e-03,
       -1.15288161e-02, -1.28590818e-02, 8.28645565e-03, 2.56508365e-02,
       5.35860611e-03, -1.54028658e-03, 7.25937588e-03, 4.34091361e-03,
       -3.07759494e-02, -1.37953181e-02, 9.80969984e-03, -1.01823164e-02,
       -2.65945997e-02, 2.24833414e-02, 5.99127123e-03, 3.55639197e-02,
       1.14201754e-02, 1.08323190e-02, -2.30298769e-02, 1.79290045e-02,
       7.28792557e-03, 1.26978022e-03, 4.95756557e-03, 1.41369095e-02,
       -3.03347013e-03, -1.61269270e-02, -2.80922074e-02,
       -7.43993209e-04, 6.21328317e-03, 1.48682026e-02, 2.30808835e-02,
       3.22030653e-04, 2.70458008e-03, 1.54871326e-02, 1.09436046e-02,
       3.67898308e-03, 1.34035456e-03, -1.17597245e-02, -4.63780295e-03,
       -9.28690191e-03, 2.34773904e-02, 2.04201546e-02, 6.93467970e-04,
       3.90670821e-02, -1.54251782e-02, -1.70051567e-02, 2.41181608e-02,
       3.25222947e-02, -6.48336834e-04, -1.56241823e-02, 9.08849295e-03,
       4.20716312e-03, 3.43763046e-02, 8.55223555e-03, -8.71676020e-03,
       1.67258866e-02, -4.53195907e-03, -2.91121788e-02, 1.57605372e-02,
       4.17059474e-02, -7.74589507e-03, 3.04214694e-02, -1.93066373e-02,
       -1.57241523e-02, 2.27479357e-03, -7.25108851e-03, 4.94104438e-03,
       3.90302204e-02, -1.33556267e-02, 2.90702999e-04, 6.84157899e-03,
       -3.77453752e-02, -8.91804695e-03, 1.45809744e-02, -1.60041992e-02,
       1.08879274e-02, 1.89571008e-02, -1.24547016e-02, 6.69551967e-03,
       -5.46854734e-03, -3.82334292e-02, 1.96685605e-02, 9.40056518e-03,
       -1.03795184e-02, -1.08334897e-02, 6.01580087e-03, 2.56062835e-03,
       8.84624384e-03, -3.14444415e-02, -3.56858261e-02, -7.93118030e-03,
       8.90270062e-03, -7.10316293e-04, -9.23376996e-03, -2.23935377e-02,
       -1.47344284e-02, 3.18830572e-02, -1.91509128e-02, -3.10059823e-02,
       2.36679092e-02, -1.56498575e+00 ]
